{
  "in_shape": [
    null,
    128,
    2
  ],
  "layers": [
    {
      "type": "gru",
      "activation": "tanh",
      "shape": [
        null,
        128,
        8
      ],
      "weights": [
        [
          [
            0.25730231404304504,
            -0.161711186170578,
            -0.34642326831817627,
            0.46828773617744446,
            -0.30122044682502747,
            0.05594712123274803,
            -0.0010549027938395739,
            0.12976615130901337,
            0.4645470082759857,
            -0.509488046169281,
            0.1239723339676857,
            -0.0030197363812476397,
            0.06228756159543991,
            -0.4329288899898529,
            -0.09246932715177536,
            -0.3635248839855194,
            -0.03091636672616005,
            0.16902989149093628,
            0.1862606257200241,
            0.41004058718681335,
            -0.11884789168834686,
            0.2755934000015259,
            -0.32297471165657043,
            0.03966766968369484
          ],
          [
            -0.13882356882095337,
            0.3695518672466278,
            0.14276476204395294,
            -0.558603823184967,
            0.4559697210788727,
            0.5491870641708374,
            -0.10025756806135178,
            0.0033757882192730904,
            -0.2931780517101288,
            -0.022299904376268387,
            -0.03952684625983238,
            -0.4075281620025635,
            0.26328757405281067,
            0.14178495109081268,
            0.3164989948272705,
            0.3070148229598999,
            -0.09955383837223053,
            0.3184777498245239,
            0.08400489389896393,
            -0.2518288195133209,
            -0.20548591017723083,
            -0.182857483625412,
            0.2506674528121948,
            0.29596614837646484
          ]
        ],
        [
          [
            0.09995163232088089,
            -0.2557925581932068,
            -0.19630032777786255,
            -0.022173725068569183,
            -0.3439609706401825,
            0.3085302710533142,
            0.14552263915538788,
            0.6728918552398682,
            0.1719209849834442,
            0.06807350367307663,
            0.19652779400348663,
            -0.12149690091609955,
            -0.05430344119668007,
            -0.16501061618328094,
            0.3637436032295227,
            0.12198016792535782,
            -0.1849089115858078,
            -0.13822190463542938,
            0.11985229700803757,
            -0.22795657813549042,
            0.1373254805803299,
            0.13946159183979034,
            0.3367176353931427,
            0.5033606290817261
          ],
          [
            -0.8081912994384766,
            0.40157753229141235,
            0.1676466464996338,
            0.27615660429000854,
            0.03300454095005989,
            0.017368342727422714,
            0.34176743030548096,
            -0.6396886706352234,
            0.26165860891342163,
            -0.19222985208034515,
            0.0412345714867115,
            -0.32747599482536316,
            -0.013709405437111855,
            -0.30406996607780457,
            0.09942431002855301,
            -0.41721343994140625,
            -0.12632787227630615,
            -0.1371770203113556,
            -0.24141734838485718,
            -0.226008802652359,
            -0.31997326016426086,
            0.2984013259410858,
            0.13234540820121765,
            -0.19354148209095
          ],
          [
            -0.11526285856962204,
            -0.08749144524335861,
            -0.2289729118347168,
            0.2708929479122162,
            -0.29213860630989075,
            0.24096238613128662,
            -0.5719422101974487,
            -0.2616110146045685,
            -0.10436104983091354,
            -0.05447036027908325,
            -0.16123704612255096,
            0.2656867504119873,
            0.0921907052397728,
            -0.23941153287887573,
            0.10460777580738068,
            -0.08997287601232529,
            0.17031103372573853,
            -0.1572103053331375,
            -0.3369111716747284,
            -0.05816373974084854,
            -0.3982304334640503,
            -0.19619441032409668,
            0.23047827184200287,
            0.1429745852947235
          ],
          [
            -0.07985921204090118,
            -0.021397700533270836,
            -0.1314040720462799,
            -0.2285662293434143,
            0.2658470869064331,
            -0.0019446274964138865,
            -0.25594186782836914,
            -0.27598556876182556,
            -0.023173080757260323,
            -0.0034889662638306618,
            -0.2559378147125244,
            0.08976871520280838,
            -0.0353223942220211,
            0.5520479083061218,
            0.5878672003746033,
            0.31193119287490845,
            0.04588848352432251,
            -0.05996481329202652,
            -0.07199493050575256,
            0.09919745475053787,
            -0.09609527140855789,
            0.239956796169281,
            0.08660196512937546,
            -0.19564813375473022
          ],
          [
            0.06260742992162704,
            -0.14473551511764526,
            -0.04627469554543495,
            0.09069965034723282,
            0.06728067249059677,
            0.08064911514520645,
            -0.008364520035684109,
            0.3334669768810272,
            0.004423200152814388,
            -0.18924693763256073,
            0.1534375101327896,
            -0.2288409173488617,
            -0.030494747683405876,
            0.0883508175611496,
            -0.045724138617515564,
            -0.07038083672523499,
            -0.05099763348698616,
            -0.2130596935749054,
            0.646930992603302,
            0.3230387270450592,
            0.000617947313003242,
            0.00849280133843422,
            -0.030667558312416077,
            0.305084764957428
          ],
          [
            -0.13222242891788483,
            0.1597503125667572,
            -0.3428066074848175,
            -0.12376346439123154,
            -0.040394559502601624,
            -0.3117881119251251,
            0.22949959337711334,
            -0.40741297602653503,
            -0.4736119210720062,
            0.043254680931568146,
            -0.17940407991409302,
            -0.19830405712127686,
            0.41199859976768494,
            0.2435508668422699,
            -0.12353948503732681,
            0.04417030140757561,
            -0.17366807162761688,
            -0.20364634692668915,
            -0.1690330058336258,
            -0.1965981125831604,
            0.1732185333967209,
            -0.23698514699935913,
            0.01142405066639185,
            0.21629683673381805
          ],
          [
            -0.08858069032430649,
            -0.757282018661499,
            0.1619320511817932,
            0.3199089765548706,
            -0.11056002229452133,
            0.5449004769325256,
            0.08594479411840439,
            0.17231659591197968,
            -0.1188666895031929,
            -0.2608899474143982,
            0.055185675621032715,
            -0.14603880047798157,
            -0.01443110778927803,
            -0.5607208609580994,
            -0.08055846393108368,
            0.19665370881557465,
            0.10857993364334106,
            0.07414910942316055,
            0.19772659242153168,
            -0.12011747062206268,
            0.2065059244632721,
            0.07543720304965973,
            0.25447574257850647,
            -0.2930719554424286
          ],
          [
            -0.35961392521858215,
            0.07033955305814743,
            -0.10595277696847916,
            0.540776252746582,
            0.20890791714191437,
            0.3693881332874298,
            0.14058463275432587,
            0.32681480050086975,
            -0.14429302513599396,
            -0.12047956883907318,
            0.02228977158665657,
            0.16972823441028595,
            0.13067616522312164,
            0.2050267457962036,
            0.0076558650471270084,
            -0.4152120351791382,
            0.15872567892074585,
            0.10827406495809555,
            -0.2540169954299927,
            -0.12665943801403046,
            -0.042191267013549805,
            0.20399852097034454,
            -0.0399080254137516,
            -0.4447329640388489
          ]
        ],
        [
          [
            0.1397249549627304,
            -0.4602409601211548,
            0.061724934726953506,
            0.05593111738562584,
            -0.3095562756061554,
            -0.16609953343868256,
            -0.09896603971719742,
            0.4912339746952057,
            0.01928591914474964,
            -0.1518917679786682,
            0.11469943821430206,
            -0.051724158227443695,
            -0.1101776584982872,
            -0.09542255848646164,
            -0.10225769877433777,
            0.08472102135419846,
            0.08897313475608826,
            -0.0048929485492408276,
            -0.0488554872572422,
            -0.02894718572497368,
            0.012596574611961842,
            -0.08769454061985016,
            0.06882276386022568,
            0.038365889340639114
          ],
          [
            0.16329149901866913,
            -0.508309006690979,
            -0.015445850789546967,
            0.10414649546146393,
            -0.28366824984550476,
            -0.15628613531589508,
            -0.006479139905422926,
            0.4988207519054413,
            -0.12052987515926361,
            -0.03088219091296196,
            0.13799060881137848,
            -0.052757859230041504,
            -0.10342907160520554,
            -0.008639886043965816,
            -0.10282200574874878,
            0.08546961098909378,
            0.02323734015226364,
            -0.007766054477542639,
            -0.012434897944331169,
            -0.020096464082598686,
            0.024930624291300774,
            -0.0070821079425513744,
            0.0629570260643959,
            -0.039986252784729004
          ]
        ]
      ]
    },
    {
      "type": "dense",
      "activation": "",
      "shape": [
        null,
        128,
        2
      ],
      "weights": [
        [
          [
            0.04553247615695,
            -0.44853878021240234
          ],
          [
            -0.08502325415611267,
            -0.13452883064746857
          ],
          [
            -0.030306074768304825,
            0.015163559466600418
          ],
          [
            0.129136323928833,
            0.31534478068351746
          ],
          [
            0.04195008799433708,
            0.08344332128763199
          ],
          [
            -0.4185537099838257,
            0.29949885606765747
          ],
          [
            -0.24035805463790894,
            0.5929329991340637
          ],
          [
            0.6358858346939087,
            0.056368935853242874
          ]
        ],
        [
          -0.017608940601348877,
          0.006015052553266287
        ]
      ]
    }
  ]
}