{
    "in_shape": [
        null,
        null,
        2
    ],
    "layers": [
        {
            "type": "gru",
            "activation": "tanh",
            "shape": [
                null,
                null,
                2
            ],
            "weights": [
                [
                    [
                        0.320747971534729,
                        0.23778943717479706,
                        -0.13919460773468018,
                        0.38629409670829773,
                        0.5105735063552856,
                        0.1996016949415207
                    ],
                    [
                        -0.7903558015823364,
                        0.5009819269180298,
                        0.5634695291519165,
                        0.19509783387184143,
                        -0.04474608227610588,
                        -0.3174310326576233
                    ]
                ],
                [
                    [
                        0.4904961585998535,
                        -0.5789443254470825,
                        0.2216508537530899,
                        -0.08873111754655838,
                        0.4300081729888916,
                        -0.42699822783470154
                    ],
                    [
                        -0.19782723486423492,
                        0.2026994824409485,
                        0.7404839396476746,
                        -0.4150356948375702,
                        0.3298267722129822,
                        0.30070021748542786
                    ]
                ],
                [
                    [
                        -0.0371381975710392,
                        0.035189539194107056,
                        -0.0706213191151619,
                        0.019576072692871094,
                        -0.08949840813875198,
                        0.04503004252910614
                    ],
                    [
                        -0.042525120079517365,
                        0.054406628012657166,
                        -0.06753641366958618,
                        -0.054514478892087936,
                        -0.06190284341573715,
                        -0.03582374006509781
                    ]
                ]
            ]
        },
        {
            "type": "gru",
            "activation": "tanh",
            "shape": [
                null,
                null,
                2
            ],
            "weights": [
                [
                    [
                        0.07876800000667572,
                        -0.6826351284980774,
                        0.5420656800270081,
                        -0.28713086247444153,
                        -0.5502330660820007,
                        -0.6315664052963257
                    ],
                    [
                        0.865702748298645,
                        0.273354172706604,
                        0.46478843688964844,
                        -0.1325875073671341,
                        0.3922201693058014,
                        -0.2218141406774521
                    ]
                ],
                [
                    [
                        0.1985996961593628,
                        0.3238179683685303,
                        -0.31236958503723145,
                        0.7346823811531067,
                        -0.4430440664291382,
                        0.14859060943126678
                    ],
                    [
                        0.17461246252059937,
                        -0.313781201839447,
                        0.4651463031768799,
                        0.0034058690071105957,
                        -0.6395868062973022,
                        -0.495588481426239
                    ]
                ],
                [
                    [
                        0.04522383213043213,
                        0.015025000087916851,
                        0.010915431194007397,
                        0.0195706058293581,
                        0.1058867946267128,
                        -0.05522281304001808
                    ],
                    [
                        0.06127028912305832,
                        0.057802412658929825,
                        0.11083162575960159,
                        -0.03084433451294899,
                        -0.029400743544101715,
                        0.01904643326997757
                    ]
                ]
            ]
        },
        {
            "type": "gru",
            "activation": "tanh",
            "shape": [
                null,
                null,
                2
            ],
            "weights": [
                [
                    [
                        -0.13644224405288696,
                        -0.03154058754444122,
                        0.46314457058906555,
                        -0.8202734589576721,
                        0.6918599605560303,
                        -0.06810523569583893
                    ],
                    [
                        0.5498027801513672,
                        -0.5993831753730774,
                        -0.8395500183105469,
                        0.6782023906707764,
                        0.05602060258388519,
                        -0.2687680125236511
                    ]
                ],
                [
                    [
                        0.40917348861694336,
                        -0.09987826645374298,
                        0.3422178030014038,
                        0.028338583186268806,
                        -0.7513641715049744,
                        -0.374348908662796
                    ],
                    [
                        0.5578482747077942,
                        -0.24588130414485931,
                        -0.30609771609306335,
                        0.20583243668079376,
                        0.4661073088645935,
                        -0.5244319438934326
                    ]
                ],
                [
                    [
                        0.031753867864608765,
                        0.01540716178715229,
                        -0.13182683289051056,
                        -0.034550413489341736,
                        -0.03574924170970917,
                        -0.09150251001119614
                    ],
                    [
                        0.01637198030948639,
                        0.010703806765377522,
                        -0.08422917127609253,
                        -0.07333242893218994,
                        -0.03126618638634682,
                        0.06848615407943726
                    ]
                ]
            ]
        },
        {
            "type": "gru",
            "activation": "tanh",
            "shape": [
                null,
                null,
                2
            ],
            "weights": [
                [
                    [
                        0.7224624156951904,
                        -0.5928943753242493,
                        0.5100631713867188,
                        0.8471074104309082,
                        -0.188469797372818,
                        0.6624448299407959
                    ],
                    [
                        -0.17916418612003326,
                        0.4047572910785675,
                        -0.5178390145301819,
                        -0.6058899760246277,
                        -0.5049294233322144,
                        -0.6550194025039673
                    ]
                ],
                [
                    [
                        -0.13096165657043457,
                        -0.33512887358665466,
                        -0.8583165407180786,
                        -0.279428631067276,
                        -0.03431781381368637,
                        0.23360751569271088
                    ],
                    [
                        0.13112178444862366,
                        -0.0008039139211177826,
                        -0.2885568141937256,
                        0.08391563594341278,
                        0.47250959277153015,
                        -0.8180673718452454
                    ]
                ],
                [
                    [
                        0.058747291564941406,
                        -0.12437321245670319,
                        0.0500786192715168,
                        -0.032411690801382065,
                        0.03419039398431778,
                        -0.0199018232524395
                    ],
                    [
                        -0.04419102519750595,
                        -0.04284576326608658,
                        0.041874755173921585,
                        -0.04125301167368889,
                        0.04648929461836815,
                        -0.016758641228079796
                    ]
                ]
            ]
        },
        {
            "type": "gru",
            "activation": "tanh",
            "shape": [
                null,
                null,
                2
            ],
            "weights": [
                [
                    [
                        -0.15544730424880981,
                        0.8458802103996277,
                        -0.020441986620426178,
                        -0.18077290058135986,
                        0.14095184206962585,
                        -0.7048956751823425
                    ],
                    [
                        -0.13955828547477722,
                        -0.40804919600486755,
                        -0.7317860722541809,
                        -0.7473502159118652,
                        0.3940562307834625,
                        -0.8515451550483704
                    ]
                ],
                [
                    [
                        0.17849302291870117,
                        -0.12980873882770538,
                        -0.3726821541786194,
                        0.2677510380744934,
                        -0.8379841446876526,
                        -0.196188285946846
                    ],
                    [
                        -0.7192208170890808,
                        0.1401229053735733,
                        0.509675920009613,
                        0.15172097086906433,
                        -0.27794158458709717,
                        -0.3210086524486542
                    ]
                ],
                [
                    [
                        0.05106572434306145,
                        0.0457327738404274,
                        -0.012784937396645546,
                        -0.05472424253821373,
                        -0.021726742386817932,
                        -0.03021186590194702
                    ],
                    [
                        0.16611991822719574,
                        0.08540951460599899,
                        -0.016403334215283394,
                        -0.039660196751356125,
                        0.06493563205003738,
                        0.08048037439584732
                    ]
                ]
            ]
        },
        {
            "type": "gru",
            "activation": "tanh",
            "shape": [
                null,
                null,
                2
            ],
            "weights": [
                [
                    [
                        0.47218507528305054,
                        -0.3609824776649475,
                        -0.844169020652771,
                        0.31722959876060486,
                        0.39833804965019226,
                        0.6451933979988098
                    ],
                    [
                        0.1004471406340599,
                        0.4495307207107544,
                        -0.03597008436918259,
                        -0.582481861114502,
                        -0.6334173083305359,
                        -0.12716266512870789
                    ]
                ],
                [
                    [
                        -0.4991399049758911,
                        -0.13747458159923553,
                        0.39548030495643616,
                        -0.35421428084373474,
                        0.4198319911956787,
                        0.5232864022254944
                    ],
                    [
                        -0.663811981678009,
                        -0.1084333062171936,
                        -0.31906962394714355,
                        -0.30466124415397644,
                        -0.04258650541305542,
                        -0.5925862193107605
                    ]
                ],
                [
                    [
                        0.15602882206439972,
                        -0.01467506680637598,
                        -0.002358680358156562,
                        0.0014089373871684074,
                        0.027462558820843697,
                        0.007757189683616161
                    ],
                    [
                        0.12992580235004425,
                        0.10234951227903366,
                        0.004979022778570652,
                        0.00016247686289716512,
                        0.03866126015782356,
                        0.0501718670129776
                    ]
                ]
            ]
        },
        {
            "type": "gru",
            "activation": "tanh",
            "shape": [
                null,
                null,
                2
            ],
            "weights": [
                [
                    [
                        0.8889205455780029,
                        -0.5025384426116943,
                        -0.21528713405132294,
                        -0.40829890966415405,
                        -0.5194238424301147,
                        -0.574497640132904
                    ],
                    [
                        0.4950447976589203,
                        -0.6729512810707092,
                        -0.08103670924901962,
                        0.2682996094226837,
                        -0.10342425107955933,
                        0.49280449748039246
                    ]
                ],
                [
                    [
                        -0.28000903129577637,
                        0.42151081562042236,
                        -0.3342669904232025,
                        -0.13990552723407745,
                        -0.33874693512916565,
                        0.7055962085723877
                    ],
                    [
                        0.2577971816062927,
                        0.8506847023963928,
                        -0.06948292255401611,
                        -0.067689910531044,
                        0.3433246314525604,
                        -0.2873925268650055
                    ]
                ],
                [
                    [
                        0.14816917479038239,
                        0.12020199745893478,
                        -0.20556657016277313,
                        -0.0374053493142128,
                        -0.14998716115951538,
                        -0.0026753435377031565
                    ],
                    [
                        0.1999170035123825,
                        0.14436295628547668,
                        -0.051319368183612823,
                        -0.0883496105670929,
                        -0.026286104694008827,
                        -0.03575197607278824
                    ]
                ]
            ]
        },
        {
            "type": "gru",
            "activation": "tanh",
            "shape": [
                null,
                null,
                2
            ],
            "weights": [
                [
                    [
                        0.6494789123535156,
                        -0.3476371169090271,
                        -0.35281819105148315,
                        0.31060248613357544,
                        -0.6876338124275208,
                        0.7869248986244202
                    ],
                    [
                        -0.2449079155921936,
                        0.19409160315990448,
                        0.7177208662033081,
                        -0.17107842862606049,
                        -0.1369687169790268,
                        0.2805785834789276
                    ]
                ],
                [
                    [
                        -0.4069969654083252,
                        0.1874944418668747,
                        -0.7376325130462646,
                        0.13084761798381805,
                        -0.4178959131240845,
                        -0.2516733407974243
                    ],
                    [
                        -0.5301143527030945,
                        -0.5829387307167053,
                        -0.03592251241207123,
                        0.4130497872829437,
                        0.2016795575618744,
                        0.40814948081970215
                    ]
                ],
                [
                    [
                        0.22815929353237152,
                        0.3488910496234894,
                        -0.1707744151353836,
                        -0.09743203222751617,
                        0.02813638187944889,
                        -0.2170589715242386
                    ],
                    [
                        0.18761761486530304,
                        0.41380277276039124,
                        -0.1107935681939125,
                        -0.03418334200978279,
                        -0.008796470239758492,
                        -0.02100992575287819
                    ]
                ]
            ]
        },
        {
            "type": "gru",
            "activation": "tanh",
            "shape": [
                null,
                null,
                2
            ],
            "weights": [
                [
                    [
                        -0.01764652691781521,
                        0.02285151369869709,
                        -0.389615923166275,
                        -0.6365191340446472,
                        -0.23451821506023407,
                        -0.09570092707872391
                    ],
                    [
                        -0.19305770099163055,
                        -0.8342030048370361,
                        0.8026530146598816,
                        0.03392860293388367,
                        0.9448025226593018,
                        0.429248571395874
                    ]
                ],
                [
                    [
                        -0.26664412021636963,
                        -0.2514275312423706,
                        -0.20281806588172913,
                        -0.32463252544403076,
                        0.4882218539714813,
                        -0.6933996677398682
                    ],
                    [
                        0.49042701721191406,
                        -0.12383440881967545,
                        -0.18524202704429626,
                        -0.7697793245315552,
                        0.08603836596012115,
                        0.3314647972583771
                    ]
                ],
                [
                    [
                        1.0280059576034546,
                        1.0549287796020508,
                        -0.6774448156356812,
                        -0.16491162776947021,
                        -0.05867772549390793,
                        -0.03853093087673187
                    ],
                    [
                        1.0163415670394897,
                        1.0407053232192993,
                        -0.7527024745941162,
                        -0.08290792256593704,
                        -0.010708820074796677,
                        -0.18802453577518463
                    ]
                ]
            ]
        },
        {
            "type": "gru",
            "activation": "tanh",
            "shape": [
                null,
                null,
                2
            ],
            "weights": [
                [
                    [
                        -0.9696269631385803,
                        0.11881472170352936,
                        -0.42753493785858154,
                        0.16703391075134277,
                        -0.016378775238990784,
                        -0.020941372960805893
                    ],
                    [
                        -0.2592217028141022,
                        -0.513759970664978,
                        -0.7134703993797302,
                        0.47403421998023987,
                        -0.183196023106575,
                        0.05460396036505699
                    ]
                ],
                [
                    [
                        -0.39338719844818115,
                        -0.4118366539478302,
                        0.20860950648784637,
                        -0.578583300113678,
                        -0.39817261695861816,
                        0.3725842237472534
                    ],
                    [
                        -0.34238752722740173,
                        0.8749346733093262,
                        0.26157212257385254,
                        -0.1908378154039383,
                        -0.08594097197055817,
                        0.07095842063426971
                    ]
                ],
                [
                    [
                        3.2349014282226562,
                        3.2174203395843506,
                        -1.3840012550354004,
                        -1.4722857475280762,
                        -0.00404297886416316,
                        0.002208835445344448
                    ],
                    [
                        3.263275623321533,
                        3.188400983810425,
                        -1.412566900253296,
                        -1.4891633987426758,
                        0.02165941894054413,
                        -0.014188210479915142
                    ]
                ]
            ]
        },
        {
            "type": "dense",
            "activation": "",
            "shape": [
                null,
                null,
                8
            ],
            "weights": [
                [
                    [
                        -0.1116134449839592,
                        -0.401400625705719,
                        0.21129392087459564,
                        0.29511287808418274,
                        0.15045557916164398,
                        0.11232591420412064,
                        -0.17143142223358154,
                        -0.08694189041852951
                    ],
                    [
                        -0.07991569489240646,
                        -0.2168157994747162,
                        0.47196125984191895,
                        0.004101585131138563,
                        -0.003813036484643817,
                        -0.40742984414100647,
                        -0.10022102296352386,
                        0.3279840648174286
                    ]
                ],
                [
                    -0.0035580964758992195,
                    -0.0035581032279878855,
                    -0.0035581556148827076,
                    -0.003558075288310647,
                    -0.003558090189471841,
                    -0.003558023599907756,
                    -0.003558096941560507,
                    -0.0035581549163907766
                ]
            ]
        }
    ]
}