{
  "in_shape": [
    null,
    null,
    2
  ],
  "layers": [
    {
      "type": "dense",
      "activation": "tanh",
      "shape": [
        null,
        null,
        8
      ],
      "weights": [
        [
          [
            -0.0444931834936142,
            0.10691197216510773,
            -0.024321287870407104,
            0.08438792079687119,
            0.06962887942790985,
            -0.018132850527763367,
            -0.01280255801975727,
            0.04804464057087898
          ],
          [
            -0.09492742270231247,
            0.016928764060139656,
            0.10328388959169388,
            -0.02719554305076599,
            -0.005914976354688406,
            -0.03089907206594944,
            -0.0006915703415870667,
            -0.004567802883684635
          ]
        ],
        [
          -0.030765971168875694,
          0.026023441925644875,
          0.04688425362110138,
          0.003455663565546274,
          -0.046109553426504135,
          -0.041634052991867065,
          0.05166063830256462,
          0.006625549402087927
        ]
      ]
    },
    {
      "type": "conv1d",
      "activation": "tanh",
      "shape": [
        null,
        null,
        4
      ],
      "weights": [
        [
          [
            [
              0.33943313360214233,
              0.12955032289028168,
              0.3388094902038574,
              0.11524200439453125
            ],
            [
              0.18876592814922333,
              -0.28085818886756897,
              0.16956308484077454,
              0.28008124232292175
            ],
            [
              -0.13754168152809143,
              0.3870786130428314,
              0.048829175531864166,
              -0.3774270713329315
            ],
            [
              -0.03192295506596565,
              -0.024373207241296768,
              -0.37883874773979187,
              -0.2532331943511963
            ],
            [
              -0.16812121868133545,
              -0.2990424633026123,
              -0.39127448201179504,
              -0.09263922274112701
            ],
            [
              0.22998999059200287,
              -0.22802424430847168,
              0.11081960052251816,
              -0.24487031996250153
            ],
            [
              0.3394497036933899,
              0.26698625087738037,
              -0.25198492407798767,
              0.050352729856967926
            ],
            [
              0.10841365903615952,
              0.19269149005413055,
              -0.27652597427368164,
              -0.17574621737003326
            ]
          ],
          [
            [
              0.10945145040750504,
              -0.3495306968688965,
              -0.3887922763824463,
              -0.031240053474903107
            ],
            [
              -0.26153630018234253,
              0.37533000111579895,
              0.34247690439224243,
              0.09993258863687515
            ],
            [
              -0.4152807891368866,
              -0.2493099868297577,
              0.12816718220710754,
              0.41603466868400574
            ],
            [
              -0.26662367582321167,
              -0.2408396303653717,
              -0.11176797747612,
              -0.18800723552703857
            ],
            [
              -0.23635618388652802,
              -0.1280858963727951,
              -0.1752292513847351,
              0.35106921195983887
            ],
            [
              0.3981568217277527,
              0.22035740315914154,
              -0.30652564764022827,
              -0.12617598474025726
            ],
            [
              0.3384684920310974,
              0.33856749534606934,
              0.22622275352478027,
              0.31640613079071045
            ],
            [
              0.21031339466571808,
              0.07114700973033905,
              0.3233726918697357,
              0.4109434485435486
            ]
          ],
          [
            [
              0.3104211390018463,
              -0.3726240396499634,
              0.38578760623931885,
              0.33945390582084656
            ],
            [
              0.03675074130296707,
              -0.17780837416648865,
              -0.17624911665916443,
              0.21521610021591187
            ],
            [
              0.2930803894996643,
              -0.40079089999198914,
              0.3882148265838623,
              -0.1991010159254074
            ],
            [
              -0.267392098903656,
              -0.33602872490882874,
              0.34999942779541016,
              0.37337973713874817
            ],
            [
              0.11388322710990906,
              -0.0904848501086235,
              -0.20011867582798004,
              0.020992083474993706
            ],
            [
              0.2209618240594864,
              0.02399255521595478,
              -0.23183585703372955,
              -0.10692470520734787
            ],
            [
              -0.254412442445755,
              -0.3021886646747589,
              0.21044030785560608,
              0.06781366467475891
            ],
            [
              0.21317969262599945,
              -0.23854097723960876,
              -0.2048533707857132,
              -0.21064330637454987
            ]
          ]
        ],
        [
          0.02489561028778553,
          0.07023250311613083,
          0.0427718386054039,
          0.011951472610235214
        ]
      ],
      "kernel_size": [
        3
      ],
      "dilation": [
        2
      ]
    },
    {
      "type": "conv1d",
      "activation": "tanh",
      "shape": [
        null,
        null,
        2
      ],
      "weights": [
        [
          [
            [
              0.21131592988967896,
              -0.2327020913362503
            ],
            [
              0.27686968445777893,
              -0.4455801844596863
            ],
            [
              -0.5508503317832947,
              -0.27998021245002747
            ],
            [
              -0.19510097801685333,
              0.27179622650146484
            ]
          ],
          [
            [
              -0.03256923332810402,
              -0.5193867683410645
            ],
            [
              0.2634335458278656,
              0.12754684686660767
            ],
            [
              0.5203297138214111,
              0.17250309884548187
            ],
            [
              0.22846248745918274,
              0.4553530216217041
            ]
          ],
          [
            [
              0.4562768042087555,
              0.35613471269607544
            ],
            [
              -0.2964271903038025,
              0.43471938371658325
            ],
            [
              -0.34915590286254883,
              -0.11543933302164078
            ],
            [
              -0.23818817734718323,
              -0.38147905468940735
            ]
          ]
        ],
        [
          -0.00907138828188181,
          -0.00906193908303976
        ]
      ],
      "kernel_size": [
        3
      ],
      "dilation": [
        35
      ]
    },
    {
      "type": "dense",
      "activation": "",
      "shape": [
        null,
        null,
        1
      ],
      "weights": [
        [
          [
            0.7455911040306091
          ],
          [
            0.6699431538581848
          ]
        ],
        [
          0.03789077699184418
        ]
      ]
    }
  ]
}