{
    "in_shape": [
        null,
        64,
        2
    ],
    "layers": [
        {
            "type": "gru",
            "activation": "tanh",
            "shape": [
                null,
                64,
                8
            ],
            "weights": [
                [
                    [
                        -0.1675420105457306,
                        0.09409681707620621,
                        0.23622925579547882,
                        0.3789251148700714,
                        0.13902321457862854,
                        -0.13083192706108093,
                        -0.25206130743026733,
                        0.15597154200077057,
                        0.08628687262535095,
                        0.3678624629974365,
                        -0.25113704800605774,
                        -0.5122793316841125,
                        -0.0599278062582016,
                        -0.0785834863781929,
                        0.20034006237983704,
                        0.1261519491672516,
                        0.27965936064720154,
                        -0.348504900932312,
                        0.19510780274868011,
                        0.23901095986366272,
                        -0.20463991165161133,
                        -0.17728324234485626,
                        -0.35318076610565186,
                        -0.2779421806335449
                    ],
                    [
                        -0.5563591718673706,
                        -0.3383350372314453,
                        -0.49831920862197876,
                        0.29575249552726746,
                        -0.005779665894806385,
                        0.06562308222055435,
                        -0.017710255458950996,
                        0.03680099546909332,
                        0.2884315550327301,
                        -0.14636293053627014,
                        0.27505457401275635,
                        0.06347057968378067,
                        0.020428214222192764,
                        -0.006087592337280512,
                        -0.0029683096799999475,
                        0.22687247395515442,
                        0.27608683705329895,
                        -0.38949286937713623,
                        -0.10699791461229324,
                        -0.3228101432323456,
                        -0.3935209810733795,
                        0.008250528946518898,
                        -0.3011327087879181,
                        0.2550143897533417
                    ]
                ],
                [
                    [
                        0.320002019405365,
                        -0.15280236303806305,
                        0.4445670545101166,
                        0.15862533450126648,
                        -0.4902028441429138,
                        -0.11397159844636917,
                        0.20642200112342834,
                        -0.06899341940879822,
                        0.0516011081635952,
                        -0.08355985581874847,
                        -0.4286944270133972,
                        -0.44059374928474426,
                        0.07851821929216385,
                        -0.07565425336360931,
                        -0.03515820950269699,
                        -0.18840210139751434,
                        -0.1991577446460724,
                        0.2430633306503296,
                        0.011371014639735222,
                        -0.21047094464302063,
                        0.0007248817128129303,
                        0.1959362030029297,
                        -0.24116463959217072,
                        -0.5271256566047668
                    ],
                    [
                        0.1346789300441742,
                        -0.21941417455673218,
                        -0.2964562773704529,
                        0.014143209904432297,
                        0.2834552824497223,
                        -0.26959261298179626,
                        0.17414253950119019,
                        -0.24950671195983887,
                        -0.005446976982057095,
                        0.19619299471378326,
                        0.07758720219135284,
                        -0.273314893245697,
                        0.24251939356327057,
                        -0.09320910274982452,
                        0.24548129737377167,
                        -0.04196235537528992,
                        -0.11004430055618286,
                        0.2048155665397644,
                        -0.20267519354820251,
                        -0.09280034154653549,
                        0.03746245056390762,
                        0.3019825518131256,
                        0.1286075860261917,
                        0.24476683139801025
                    ],
                    [
                        -0.004812622908502817,
                        -0.18270564079284668,
                        -0.194682776927948,
                        0.26011380553245544,
                        -0.003217501798644662,
                        0.13466735184192657,
                        -0.14168992638587952,
                        0.19627892971038818,
                        -0.3717010021209717,
                        0.21492742002010345,
                        0.29982271790504456,
                        0.120208241045475,
                        -0.31253501772880554,
                        0.2888810932636261,
                        -0.021474571898579597,
                        0.029564859345555305,
                        -0.21648690104484558,
                        0.09895264357328415,
                        0.013367505744099617,
                        -0.47796279191970825,
                        -0.19289733469486237,
                        -0.27815866470336914,
                        -0.15713907778263092,
                        -0.09283779561519623
                    ],
                    [
                        0.21479658782482147,
                        -0.2764841318130493,
                        0.19089551270008087,
                        0.07806620746850967,
                        -0.2555694282054901,
                        -0.2865475118160248,
                        0.40917250514030457,
                        -0.006973109673708677,
                        -0.035649873316287994,
                        -0.5050821304321289,
                        -0.04497505724430084,
                        -0.10557928681373596,
                        -0.2674401104450226,
                        0.34157904982566833,
                        0.1438439041376114,
                        -0.07243411242961884,
                        -0.101585254073143,
                        -0.37887224555015564,
                        -0.2757607102394104,
                        -0.045613083988428116,
                        0.19904030859470367,
                        0.042737796902656555,
                        0.14503534138202667,
                        -0.0787053257226944
                    ],
                    [
                        -0.08616034686565399,
                        -0.03665560856461525,
                        0.15519379079341888,
                        0.015040402300655842,
                        0.06982816010713577,
                        -0.44045379757881165,
                        0.05195643752813339,
                        0.16733868420124054,
                        0.24438375234603882,
                        -0.03102090395987034,
                        -0.32014909386634827,
                        -0.07636822015047073,
                        -0.2304629385471344,
                        -0.047256212681531906,
                        -0.07619460672140121,
                        0.17372293770313263,
                        0.5109236240386963,
                        0.02157990261912346,
                        0.024410026147961617,
                        -0.28771692514419556,
                        0.15990465879440308,
                        -0.1404600888490677,
                        -0.3554866313934326,
                        0.32953402400016785
                    ],
                    [
                        -0.17096953094005585,
                        -0.4934735894203186,
                        -0.05209248885512352,
                        0.21440134942531586,
                        0.18039008975028992,
                        0.00631900317966938,
                        -0.2305981069803238,
                        -0.27437537908554077,
                        0.06099516525864601,
                        -0.25112998485565186,
                        -0.06556325405836105,
                        -0.1255108267068863,
                        0.08422023802995682,
                        0.015677640214562416,
                        0.25198352336883545,
                        0.05196404829621315,
                        0.010427843779325485,
                        0.17643123865127563,
                        -0.0653066337108612,
                        -0.10951272398233414,
                        0.4568588137626648,
                        -0.27452799677848816,
                        -0.029245363548398018,
                        -0.40136176347732544
                    ],
                    [
                        -0.15419982373714447,
                        0.3842007517814636,
                        -0.3006482422351837,
                        0.08464457094669342,
                        0.4436112940311432,
                        -0.20200811326503754,
                        -0.22974739968776703,
                        0.2306479960680008,
                        0.30339378118515015,
                        0.04022885113954544,
                        -0.19441860914230347,
                        0.31490784883499146,
                        0.011539480648934841,
                        -0.038814857602119446,
                        0.18878456950187683,
                        0.24943381547927856,
                        -0.5022715926170349,
                        -0.0813572034239769,
                        -0.0026172182988375425,
                        -0.018790490925312042,
                        0.06777728348970413,
                        0.13124127686023712,
                        -0.16864071786403656,
                        -0.14445212483406067
                    ],
                    [
                        -0.024745218455791473,
                        -0.19245555996894836,
                        -0.22290067374706268,
                        -0.16108934581279755,
                        0.16375714540481567,
                        -0.005268916022032499,
                        0.16237902641296387,
                        0.5135707259178162,
                        0.10554879158735275,
                        0.060562629252672195,
                        0.05623878911137581,
                        -0.16230545938014984,
                        -0.19598467648029327,
                        0.25209763646125793,
                        -0.04672320559620857,
                        -0.04365302622318268,
                        0.04645348712801933,
                        0.09705796092748642,
                        -0.026316100731492043,
                        0.13240982592105865,
                        -0.07172569632530212,
                        0.22510592639446259,
                        -0.08708883821964264,
                        -0.054937079548835754
                    ]
                ],
                [
                    [
                        0.11845792829990387,
                        -0.22953563928604126,
                        0.3899056315422058,
                        0.1732911467552185,
                        -0.33259057998657227,
                        -0.39583760499954224,
                        0.2873990833759308,
                        0.08570408821105957,
                        0.006466487422585487,
                        -0.08189736306667328,
                        -0.10281400382518768,
                        -0.032418787479400635,
                        -0.04401477426290512,
                        -0.09110615402460098,
                        -0.1083095520734787,
                        0.00723497336730361,
                        0.019284557551145554,
                        -0.030940065160393715,
                        -0.05128765478730202,
                        0.02281513623893261,
                        -0.012815934605896473,
                        0.047014184296131134,
                        0.008800794370472431,
                        -0.01444295048713684
                    ],
                    [
                        0.11653903126716614,
                        -0.2133515477180481,
                        0.2546919286251068,
                        0.13306815922260284,
                        -0.45493239164352417,
                        -0.35874414443969727,
                        0.2746411859989166,
                        0.008294873870909214,
                        0.11559788137674332,
                        -0.1385607272386551,
                        -0.11193805932998657,
                        0.050343792885541916,
                        0.05543813109397888,
                        -0.09209885448217392,
                        -0.0929768830537796,
                        -0.00837691966444254,
                        0.029350221157073975,
                        -0.021333616226911545,
                        -0.007272480521351099,
                        0.023933691903948784,
                        0.04755398631095886,
                        0.017764095216989517,
                        -0.03121505305171013,
                        0.06132899597287178
                    ]
                ]
            ]
        },
        {
            "type": "dense",
            "activation": "",
            "shape": [
                null,
                64,
                2
            ],
            "weights": [
                [
                    [
                        0.15155699849128723,
                        0.21471606194972992
                    ],
                    [
                        0.002430605934932828,
                        0.056470710784196854
                    ],
                    [
                        0.10573820769786835,
                        0.47844770550727844
                    ],
                    [
                        -0.12454091757535934,
                        0.2805023193359375
                    ],
                    [
                        -0.26704955101013184,
                        0.11492499709129333
                    ],
                    [
                        0.5222333073616028,
                        0.4173402488231659
                    ],
                    [
                        0.49640700221061707,
                        -0.28587451577186584
                    ],
                    [
                        -0.4655422270298004,
                        0.36751124262809753
                    ]
                ],
                [
                    -0.012173834256827831,
                    -0.01932128705084324
                ]
            ]
        }
    ]
}